{
  "input_nodes": 5,
  "hidden_nodes": 8,
  "output_nodes": 2,
  "weights_ih": {
    "rows": 8,
    "cols": 5,
    "data": [
      [
        -1.1508301417957651,
        0.4077699276986273,
        -0.7982369208328062,
        0.09343746871681136,
        1.5250623272828039
      ],
      [
        1.097242176791442,
        0.7226683867085004,
        0.8608502861451961,
        0.6204185449812905,
        -0.35577562290923337
      ],
      [
        -0.07591846133446412,
        0.5507230044787952,
        0.4092539392927905,
        0.6786653593263323,
        -0.7903824071665284
      ],
      [
        -0.3916977062764686,
        -0.3876758050253354,
        -0.4159347253581065,
        0.11583779418290152,
        0.9868312117321567
      ],
      [
        0.9865919778009689,
        -0.608473822163151,
        -0.016708861763269578,
        -0.673497153403707,
        -0.0055277131508582045
      ],
      [
        0.8828875086507009,
        -0.6566336995619895,
        0.6751387236709983,
        -0.554967887087016,
        0.46813254036327434
      ],
      [
        0.7985067661969065,
        0.6398470675267696,
        -1.7489852835266957,
        0.28806884148068646,
        -0.12027337196321986
      ],
      [
        0.47230113090700254,
        0.3433271667479545,
        0.06752073252109847,
        -0.7108013571022633,
        -0.8064082363590432
      ]
    ]
  },
  "weights_ho": {
    "rows": 2,
    "cols": 8,
    "data": [
      [
        0.005458054544490221,
        -0.37409690597340534,
        -0.28544560663578,
        -0.7575016561131127,
        0.3963422774275638,
        -0.9921064599911197,
        -0.11026110381909904,
        0.7736093943564359
      ],
      [
        -0.6400002059021193,
        0.44967240649035767,
        -0.05672988936303236,
        -0.6011154872216917,
        -1.0520344830268202,
        -0.7777559255916904,
        -0.8593740195010815,
        -0.9308540758949082
      ]
    ]
  },
  "bias_h": {
    "rows": 8,
    "cols": 1,
    "data": [
      [
        0.8591051019571507
      ],
      [
        -0.6191263590630331
      ],
      [
        0.2744604331336711
      ],
      [
        -0.9838114809688583
      ],
      [
        -0.7165577210145522
      ],
      [
        -0.580396334524746
      ],
      [
        0.4696235461785454
      ],
      [
        0.6965571199598504
      ]
    ]
  },
  "bias_o": {
    "rows": 2,
    "cols": 1,
    "data": [
      [
        -0.47870942246749504
      ],
      [
        0.9139776338549228
      ]
    ]
  },
  "learning_rate": 0.1,
  "activation_function": {}
}
